pos	A	C	G	T
0	0.3911533622395061	-0.15974484753512136	-0.2483131239692069	0.016904609264822068
1	0.13216517398259864	-0.25532818300800153	-0.2393719015259328	0.3625349105513357
2	0.24453340294204395	0.1690361011138669	-0.39564943533986896	-0.017920068716041848
3	0.1713289970155733	-0.3395601370545752	-0.26406179977902533	0.4322929398180273
4	-0.12709367691449874	-0.053711367085327866	-0.1982479004019977	0.37905294440182435
5	0.03514610870700874	-0.34180506243097747	0.43861236710257934	-0.1319534133786106
6	-0.1113487729837192	-0.13766472391189166	-0.18969510315289467	0.4387086000485056
7	0.24053647987732232	-0.35177208932495996	-0.26440563766352165	0.3756412471111592
8	0.4695827659341268	-0.22622383053551726	-0.31720412701706696	0.07384519161845732
9	0.22537738857128975	-0.28173012363072075	-0.3732072078423621	0.4295599429017931
10	-0.017398890059146632	-0.3586812629619186	-0.3006181939547313	0.6766983469757968
11	-0.06153455599512425	-0.27426717803468903	-0.3619521724192243	0.6977539064490376
12	-0.10565059319610359	-0.1859622420489191	-0.44068117682384245	0.7322940120688652
13	0.4090418996077917	-0.1327135251961229	-0.39126674396952077	0.11493836955785205
14	-0.034017049637092234	0.4383589609936643	-0.2802037423390752	-0.12413816901749686
15	0.6039142086335972	-0.31843291022515596	-0.09463695628620894	-0.19084434212223256
16	0.2714535513717735	-0.3870451925847344	0.20934220048597613	-0.09375055927301512
17	1.1650375788855651	-1.0539626147636811	-0.5043893192674622	0.39331435514557844
18	0.7448878037835809	-1.2903382586849264	-0.7341987585985426	1.2796492134998878
19	0.17274742428283973	-1.2040418038909562	-2.997531421650034	4.028825801258149
20	0.8476683905643005	-1.6369064038712433	-2.799952279367963	3.589190292674906
21	0.89545753137241	-0.06568265740098567	-3.0473582876871426	2.2175834137157175
22	4.34781630662745	-4.269610524013445	-0.15886890714511281	0.08066312453111024
23	-0.8838953877093092	1.3430157149906805	-2.4574415695427607	1.9983212422613892
24	1.1807560081351864	-1.9645261249079522	2.6428720353359343	-1.859101918563169
25	1.0468393817930584	-2.1895269072433656	-2.5663988482194817	3.7090863736697903
26	-1.1113601761231888	-0.3351071508589656	-2.4843076962126545	3.93077502319481
27	-0.7954321245749365	-1.7993056043261997	-1.5889006833749248	4.1836384122760615
28	1.5879882899127618	-1.1138209817912392	-1.434222768000564	0.9600554598790414
29	-2.237482507725756	-1.3304655822867866	3.1370715443409107	0.4308765456716337
30	-0.6881508033206317	0.06168324496605149	0.23668704749022373	0.3897805108643564
31	-0.823253188706563	0.2564357317886585	-0.6065926888503825	1.1734101457682875
32	0.08218328515929885	0.637971327151709	0.13423755400621973	-0.8543921663172278
33	-0.4114630962677247	0.23928439918233596	-0.05706703891545409	0.2292457360008428
34	0.0031322801141306644	-0.12093570539719567	-0.05015211991502333	0.1679555451980883
35	0.32918523284451867	-0.2344728020576129	-0.006601650205702227	-0.08811078058120358
36	0.08187573631969142	-0.31525857312979366	-0.1003758414434095	0.333758678253512
37	0.6741679756988769	-0.3883456163268951	-0.45012102277964783	0.1642986634076659
38	0.0825478698646808	-0.04370812707699423	-0.37470692609268513	0.33586718330499865
39	-0.23512245335789347	0.09448837985708033	0.20054422683752557	-0.05991015333671243
40	-0.09437623174155096	0.4064807862138079	-0.18485895460753243	-0.1272455998647245
41	-0.1641823648153642	-0.002260704366527866	-0.021640900559365295	0.18808396974125735
42	0.08092543624096801	0.04291657343497682	-0.43967815047814474	0.3158361408021999
43	0.46857503227960634	-0.6511162953118814	0.8929525030541563	-0.7104112400218814
44	-0.0638916988389987	0.5316744005195375	-0.7808726605682866	0.3130899588877478
45	0.915234180323486	-1.5517214610740975	-0.9118664828717125	1.5483537636223241
46	0.11927505184177312	-0.9370835483589071	-1.427222021543086	2.2450305180602186
47	-0.30370651749648236	-0.14066363038451835	-1.0530188157198208	1.497388963600821
48	-0.19007606860893383	0.040807505255151866	-0.24282540096596544	0.39209396431974736
49	0.13782380843097536	0.1616112223507828	0.09747017446218592	-0.396905205243944
50	0.6651340696823237	-0.3140801177702649	0.4465613572778984	-0.7976153091899573
51	0.2987271703966366	0.06377390293303625	-0.10002609603209023	-0.26247497729758273
52	0.36753794576738147	-0.08288187976054717	0.03351845303019452	-0.31817451903702876
53	0.28587429782937734	0.15014863066130268	-0.2946313583223462	-0.1413915701683339
54	0.09117182447307762	-0.12685549063742746	0.268472106635616	-0.23278844047126623
55	-0.018804180799482567	-0.26318697178978556	0.2101082770758472	0.07188287551342097
56	0.021164353936953068	0.2293901175335788	-0.07522441890894527	-0.17533005256158657
57	-0.074967563764989	0.14491590292987508	0.01083133853961736	-0.08077967770450345
58	-0.08443975275502097	-0.1298822469767384	0.05442596824322782	0.15989603148853151
59	0.007500123696426109	-0.2152915119228201	0.2570631209349008	-0.04927173270850682
60	0.010305604970476862	0.0912130369503264	-0.12218482287561612	0.020666180954812867
61	0.1379811832468324	-0.11080843247008479	0.29359480418934397	-0.32076755496609155
62	-0.1563585414349004	0.04394862266599773	0.1176179888916415	-0.005208070122738842
63	0.07589382221714334	-0.05478043929192747	0.240592281404518	-0.26170566432973386
64	0.06141056844473383	0.25748791250418673	-0.22697926023272674	-0.09191922071619385
65	0.23082971639917976	-0.11944242859983739	0.20834287221140602	-0.3197301600107484
66	0.39485215033876675	-0.2896926145037626	-0.09692127384310512	-0.008238261991899032
67	0.09402296944265616	-0.13276107967758086	0.24898884330545673	-0.21025073307053208
68	-0.026075443388901554	-0.017322055520396784	-0.3221833585584658	0.36558085746776425
69	0.2024256829186893	-0.2476103029542976	0.299451150200491	-0.25426653016488276
70	-0.22114012481538836	0.3275361627769946	-0.2400642743645378	0.1336682364029315
71	0.3742641015254716	-0.13811497037576537	0.013479308049312688	-0.2496284391990189
72	-0.030705416256470275	0.3161026304472331	-0.09006833906940015	-0.19532887512136254
73	0.2856775790560704	-0.13247755313527892	-0.009546415933996105	-0.14365360998679544
74	0.6461132121791869	-0.4861488646898613	-0.02274637013440639	-0.13721797735491958
75	0.5869673314899885	0.11189863203725042	-0.25907955103661184	-0.439786412490627
76	0.1675725835231892	0.6309738188082115	-0.5599221870306174	-0.23862421530078337
77	0.6815707908509905	-0.5309618636035844	-0.565076131351459	0.4144672041040526
78	0.9394740038617845	-0.2364647790299821	-0.8006802759063427	0.09767105107454044
79	0.4680977113314704	-0.4674524683953274	-0.21314083372429246	0.2124955907881496
80	0.9345674674233283	-0.5176658705308945	-0.5598362255162734	0.14293462862384
81	0.06394144336514312	0.5037800431884528	-0.5645823487987354	-0.0031391377548605215
82	0.09373551188857604	-0.2771247810483315	-0.15161413957318476	0.3350034087329401
83	0.21752036339456693	-0.5875926536563691	-0.7496721414794527	1.1197444317412548
84	1.3557335747597195	-0.9405537336648222	-0.26412916027374456	-0.15105068082115292
85	1.2950271396348738	-0.5952921753514884	-0.6740031716432304	-0.025731792640154794
86	1.0978850929136348	-0.38499023871879856	-0.8987699108801658	0.1858750566853299
87	0.34932832676436265	-0.2776957353961216	-0.718319596173565	0.6466870048053239
88	0.7308718924627354	-0.5012061265511866	-0.2802883743117853	0.05062260840023658
89	0.4546231592981747	-0.10256969730624221	-0.5651679793340755	0.2131145173421429
90	0.4820780744126639	-0.22823462429870367	-0.3099973322316444	0.05615388211768424
91	0.25849175248247575	-0.3531044156428459	-0.39382876072704776	0.48844142388741796
92	0.5963495236690401	-0.1432444613909838	-0.21385896990596498	-0.2392460923720915
93	0.06497092953765793	0.415999766584915	-0.3130102151470797	-0.1679604809754932
94	0.12411917602336381	-0.32930434236500183	-0.2621863738289463	0.46737154017058447
95	0.47060499072683226	-0.21451604092359022	-0.06098134467148153	-0.19510760513176073
96	-0.004121170272505081	0.21897671393995286	-0.1276819516484256	-0.08717359201902214
97	0.1958428130331748	-0.29956391313025466	-0.22805287997173168	0.33177398006881165
98	0.045248358518629295	0.21523554438644793	-0.22846534197184132	-0.03201856093323582
99	0.4430675042774197	-0.3167649292067443	-0.09536084262836819	-0.030941732442307135
100	0.00997504546818806	-0.23717995977974543	0.21894351939424342	0.008261394917313952
